Language model created by QuickLM on Thu Jun 25 04:58:00 EDT 2015
Copyright (c) 1996-2010 Carnegie Mellon University and Alexander I. Rudnicky

The model is in standard ARPA format, designed by Doug Paul while he was at MITRE.

The code that was used to produce this language model is available in Open Source.
Please visit http://www.speech.cs.cmu.edu/tools/ for more information

The (fixed) discount mass is 0.5. The backoffs are computed using the ratio method.
This model based on a corpus of 3 sentences and 6 words

\data\
ngram 1=6
ngram 2=7
ngram 3=4

\1-grams:
-0.8239 </s> -0.3010
-0.8239 <s> -0.2304
-1.3010 FOLLOW -0.2788
-1.3010 ME -0.2304
-1.3010 SLEEP -0.2304
-1.3010 TIMMY -0.2304

\2-grams:
-0.7782 <s> FOLLOW 0.0000
-0.7782 <s> SLEEP 0.0000
-0.7782 <s> TIMMY 0.0000
-0.3010 FOLLOW ME 0.0000
-0.3010 ME </s> -0.3010
-0.3010 SLEEP </s> -0.3010
-0.3010 TIMMY </s> -0.3010

\3-grams:
-0.3010 <s> FOLLOW ME
-0.3010 <s> SLEEP </s>
-0.3010 <s> TIMMY </s>
-0.3010 FOLLOW ME </s>

\end\
